digraph Tree {
node [shape=box] ;
0 [label="X[1] <= 0.5\ngini = 0.478\nsamples = 836\nvalue = [506, 330]"] ;
1 [label="X[0] <= 2.5\ngini = 0.279\nsamples = 299\nvalue = [50, 249]"] ;
0 -> 1 [labeldistance=2.5, labelangle=45, headlabel="True"] ;
2 [label="X[5] <= 29.356\ngini = 0.064\nsamples = 182\nvalue = [6, 176]"] ;
1 -> 2 ;
3 [label="X[2] <= 43.0\ngini = 0.131\nsamples = 71\nvalue = [5, 66]"] ;
2 -> 3 ;
4 [label="X[3] <= 0.5\ngini = 0.069\nsamples = 56\nvalue = [2, 54]"] ;
3 -> 4 ;
5 [label="gini = 0.0\nsamples = 36\nvalue = [0, 36]"] ;
4 -> 5 ;
6 [label="X[2] <= 27.5\ngini = 0.18\nsamples = 20\nvalue = [2, 18]"] ;
4 -> 6 ;
7 [label="gini = 0.298\nsamples = 11\nvalue = [2, 9]"] ;
6 -> 7 ;
8 [label="gini = 0.0\nsamples = 9\nvalue = [0, 9]"] ;
6 -> 8 ;
9 [label="X[0] <= 1.5\ngini = 0.32\nsamples = 15\nvalue = [3, 12]"] ;
3 -> 9 ;
10 [label="gini = 0.219\nsamples = 8\nvalue = [1, 7]"] ;
9 -> 10 ;
11 [label="gini = 0.408\nsamples = 7\nvalue = [2, 5]"] ;
9 -> 11 ;
12 [label="X[2] <= 14.5\ngini = 0.018\nsamples = 111\nvalue = [1, 110]"] ;
2 -> 12 ;
13 [label="gini = 0.245\nsamples = 7\nvalue = [1, 6]"] ;
12 -> 13 ;
14 [label="gini = 0.0\nsamples = 104\nvalue = [0, 104]"] ;
12 -> 14 ;
15 [label="X[5] <= 20.825\ngini = 0.469\nsamples = 117\nvalue = [44, 73]"] ;
1 -> 15 ;
16 [label="X[5] <= 7.742\ngini = 0.408\nsamples = 98\nvalue = [28, 70]"] ;
15 -> 16 ;
17 [label="X[5] <= 7.267\ngini = 0.124\nsamples = 15\nvalue = [1, 14]"] ;
16 -> 17 ;
18 [label="gini = 0.245\nsamples = 7\nvalue = [1, 6]"] ;
17 -> 18 ;
19 [label="gini = 0.0\nsamples = 8\nvalue = [0, 8]"] ;
17 -> 19 ;
20 [label="X[4] <= 1.5\ngini = 0.439\nsamples = 83\nvalue = [27, 56]"] ;
16 -> 20 ;
21 [label="X[2] <= 7.0\ngini = 0.463\nsamples = 74\nvalue = [27, 47]"] ;
20 -> 21 ;
22 [label="gini = 0.18\nsamples = 10\nvalue = [1, 9]"] ;
21 -> 22 ;
23 [label="gini = 0.482\nsamples = 64\nvalue = [26, 38]"] ;
21 -> 23 ;
24 [label="gini = 0.0\nsamples = 9\nvalue = [0, 9]"] ;
20 -> 24 ;
25 [label="X[5] <= 31.331\ngini = 0.266\nsamples = 19\nvalue = [16, 3]"] ;
15 -> 25 ;
26 [label="gini = 0.165\nsamples = 11\nvalue = [10, 1]"] ;
25 -> 26 ;
27 [label="gini = 0.375\nsamples = 8\nvalue = [6, 2]"] ;
25 -> 27 ;
28 [label="X[2] <= 12.5\ngini = 0.256\nsamples = 537\nvalue = [456, 81]"] ;
0 -> 28 [labeldistance=2.5, labelangle=-45, headlabel="False"] ;
29 [label="X[3] <= 2.5\ngini = 0.485\nsamples = 41\nvalue = [24, 17]"] ;
28 -> 29 ;
30 [label="X[0] <= 2.5\ngini = 0.435\nsamples = 25\nvalue = [8, 17]"] ;
29 -> 30 ;
31 [label="gini = 0.165\nsamples = 11\nvalue = [1, 10]"] ;
30 -> 31 ;
32 [label="X[5] <= 14.087\ngini = 0.5\nsamples = 14\nvalue = [7, 7]"] ;
30 -> 32 ;
33 [label="gini = 0.49\nsamples = 7\nvalue = [3, 4]"] ;
32 -> 33 ;
34 [label="gini = 0.49\nsamples = 7\nvalue = [4, 3]"] ;
32 -> 34 ;
35 [label="gini = 0.0\nsamples = 16\nvalue = [16, 0]"] ;
29 -> 35 ;
36 [label="X[0] <= 1.5\ngini = 0.225\nsamples = 496\nvalue = [432, 64]"] ;
28 -> 36 ;
37 [label="X[5] <= 26.144\ngini = 0.385\nsamples = 127\nvalue = [94, 33]"] ;
36 -> 37 ;
38 [label="gini = 0.0\nsamples = 11\nvalue = [11, 0]"] ;
37 -> 38 ;
39 [label="X[5] <= 27.135\ngini = 0.407\nsamples = 116\nvalue = [83, 33]"] ;
37 -> 39 ;
40 [label="X[2] <= 39.0\ngini = 0.494\nsamples = 18\nvalue = [8, 10]"] ;
39 -> 40 ;
41 [label="gini = 0.245\nsamples = 7\nvalue = [1, 6]"] ;
40 -> 41 ;
42 [label="gini = 0.463\nsamples = 11\nvalue = [7, 4]"] ;
40 -> 42 ;
43 [label="X[5] <= 29.85\ngini = 0.359\nsamples = 98\nvalue = [75, 23]"] ;
39 -> 43 ;
44 [label="gini = 0.0\nsamples = 10\nvalue = [10, 0]"] ;
43 -> 44 ;
45 [label="gini = 0.386\nsamples = 88\nvalue = [65, 23]"] ;
43 -> 45 ;
46 [label="X[5] <= 8.175\ngini = 0.154\nsamples = 369\nvalue = [338, 31]"] ;
36 -> 46 ;
47 [label="X[5] <= 7.91\ngini = 0.202\nsamples = 175\nvalue = [155, 20]"] ;
46 -> 47 ;
48 [label="X[2] <= 32.5\ngini = 0.137\nsamples = 135\nvalue = [125, 10]"] ;
47 -> 48 ;
49 [label="gini = 0.178\nsamples = 101\nvalue = [91, 10]"] ;
48 -> 49 ;
50 [label="gini = 0.0\nsamples = 34\nvalue = [34, 0]"] ;
48 -> 50 ;
51 [label="X[5] <= 7.988\ngini = 0.375\nsamples = 40\nvalue = [30, 10]"] ;
47 -> 51 ;
52 [label="gini = 0.5\nsamples = 10\nvalue = [5, 5]"] ;
51 -> 52 ;
53 [label="gini = 0.278\nsamples = 30\nvalue = [25, 5]"] ;
51 -> 53 ;
54 [label="X[2] <= 18.75\ngini = 0.107\nsamples = 194\nvalue = [183, 11]"] ;
46 -> 54 ;
55 [label="gini = 0.0\nsamples = 29\nvalue = [29, 0]"] ;
54 -> 55 ;
56 [label="X[2] <= 20.5\ngini = 0.124\nsamples = 165\nvalue = [154, 11]"] ;
54 -> 56 ;
57 [label="gini = 0.32\nsamples = 10\nvalue = [8, 2]"] ;
56 -> 57 ;
58 [label="gini = 0.109\nsamples = 155\nvalue = [146, 9]"] ;
56 -> 58 ;
}
